digraph Tree {
node [shape=box] ;
0 [label="X[9] <= 0.5\ngini = 0.5\nsamples = 3332\nvalue = [1666, 1666]"] ;
1 [label="X[1] <= 0.5\ngini = 0.2844\nsamples = 1433\nvalue = [1187, 246]"] ;
0 -> 1 [labeldistance=2.5, labelangle=45, headlabel="True"] ;
2 [label="X[6] <= 0.5\ngini = 0.4906\nsamples = 241\nvalue = [104, 137]"] ;
1 -> 2 ;
3 [label="gini = 0.4854\nsamples = 234\nvalue = [97, 137]"] ;
2 -> 3 ;
4 [label="gini = 0.0\nsamples = 7\nvalue = [7, 0]"] ;
2 -> 4 ;
5 [label="X[4] <= 0.5\ngini = 0.1662\nsamples = 1192\nvalue = [1083, 109]"] ;
1 -> 5 ;
6 [label="gini = 0.2073\nsamples = 826\nvalue = [729, 97]"] ;
5 -> 6 ;
7 [label="gini = 0.0634\nsamples = 366\nvalue = [354, 12]"] ;
5 -> 7 ;
8 [label="X[1] <= 0.5\ngini = 0.3772\nsamples = 1899\nvalue = [479, 1420]"] ;
0 -> 8 [labeldistance=2.5, labelangle=-45, headlabel="False"] ;
9 [label="X[7] <= 0.5\ngini = 0.1057\nsamples = 965\nvalue = [54, 911]"] ;
8 -> 9 ;
10 [label="gini = 0.1731\nsamples = 512\nvalue = [49, 463]"] ;
9 -> 10 ;
11 [label="gini = 0.0218\nsamples = 453\nvalue = [5, 448]"] ;
9 -> 11 ;
12 [label="X[7] <= 0.5\ngini = 0.496\nsamples = 934\nvalue = [425, 509]"] ;
8 -> 12 ;
13 [label="gini = 0.4959\nsamples = 770\nvalue = [420, 350]"] ;
12 -> 13 ;
14 [label="gini = 0.0591\nsamples = 164\nvalue = [5, 159]"] ;
12 -> 14 ;
}