digraph Tree {
node [shape=box] ;
0 [label="X[9] <= 0.5\ngini = 0.5\nsamples = 3332\nvalue = [1666, 1666]"] ;
1 [label="X[1] <= 0.5\ngini = 0.2863\nsamples = 1421\nvalue = [1175, 246]"] ;
0 -> 1 [labeldistance=2.5, labelangle=45, headlabel="True"] ;
2 [label="X[7] <= 0.5\ngini = 0.4886\nsamples = 238\nvalue = [101, 137]"] ;
1 -> 2 ;
3 [label="gini = 0.4938\nsamples = 225\nvalue = [100, 125]"] ;
2 -> 3 ;
4 [label="gini = 0.142\nsamples = 13\nvalue = [1, 12]"] ;
2 -> 4 ;
5 [label="X[4] <= 0.5\ngini = 0.1673\nsamples = 1183\nvalue = [1074, 109]"] ;
1 -> 5 ;
6 [label="gini = 0.2051\nsamples = 836\nvalue = [739, 97]"] ;
5 -> 6 ;
7 [label="gini = 0.0668\nsamples = 347\nvalue = [335, 12]"] ;
5 -> 7 ;
8 [label="X[1] <= 0.5\ngini = 0.3818\nsamples = 1911\nvalue = [491, 1420]"] ;
0 -> 8 [labeldistance=2.5, labelangle=-45, headlabel="False"] ;
9 [label="X[7] <= 0.5\ngini = 0.139\nsamples = 985\nvalue = [74, 911]"] ;
8 -> 9 ;
10 [label="gini = 0.2184\nsamples = 529\nvalue = [66, 463]"] ;
9 -> 10 ;
11 [label="gini = 0.0345\nsamples = 456\nvalue = [8, 448]"] ;
9 -> 11 ;
12 [label="X[7] <= 0.5\ngini = 0.4951\nsamples = 926\nvalue = [417, 509]"] ;
8 -> 12 ;
13 [label="gini = 0.4969\nsamples = 760\nvalue = [410, 350]"] ;
12 -> 13 ;
14 [label="gini = 0.0808\nsamples = 166\nvalue = [7, 159]"] ;
12 -> 14 ;
}